{
    "type": "NeuralNetwork",
    "sizes": [
        11,
        6,
        2
    ],
    "layers": [
        {
            "weights": [],
            "biases": []
        },
        {
            "weights": [
                [
                    7.750607490539551,
                    4.451905250549316,
                    5.523015022277832,
                    -26.327564239501953,
                    -16.672264099121094,
                    -2.829401969909668,
                    -9.964184761047363,
                    6.594908237457275,
                    -1.0280426740646362,
                    -4.935643196105957,
                    15.097187995910645
                ],
                [
                    1.8857313394546509,
                    -1.4513540267944336,
                    0.815205991268158,
                    -1.9850571155548096,
                    -0.7961434125900269,
                    -20.83599090576172,
                    -0.2803955674171448,
                    -0.11886990815401077,
                    4.044682502746582,
                    1.4117021560668945,
                    2.303226947784424
                ],
                [
                    0.23639509081840515,
                    3.1103248596191406,
                    3.7680842876434326,
                    5.459514141082764,
                    24.488174438476562,
                    -0.44235923886299133,
                    8.397870063781738,
                    -1.4589673280715942,
                    -6.985609531402588,
                    -5.740785121917725,
                    6.009918212890625
                ],
                [
                    -0.793755054473877,
                    12.596783638000488,
                    10.185907363891602,
                    10.963665008544922,
                    7.560469150543213,
                    -27.009416580200195,
                    -11.037925720214844,
                    -0.9164621829986572,
                    2.954451084136963,
                    1.9057142734527588,
                    -12.465055465698242
                ],
                [
                    -8.132360458374023,
                    3.337428092956543,
                    1.482674241065979,
                    -0.4363176226615906,
                    -4.401418685913086,
                    -16.225692749023438,
                    -13.789132118225098,
                    9.733135223388672,
                    17.132160186767578,
                    21.910106658935547,
                    -6.3282952308654785
                ],
                [
                    6.039636135101318,
                    6.965795040130615,
                    5.885453701019287,
                    -0.3930101990699768,
                    6.118264675140381,
                    -2.8781373500823975,
                    -4.3226165771484375,
                    -4.123486042022705,
                    4.566288948059082,
                    -3.8510053157806396,
                    29.447105407714844
                ]
            ],
            "biases": [
                0.8720903396606445,
                9.293583869934082,
                -30.363006591796875,
                5.814864158630371,
                17.86707305908203,
                -28.402297973632812
            ]
        },
        {
            "weights": [
                [
                    3.0912680625915527,
                    0.5170397162437439,
                    3.1498897075653076,
                    -0.8646190762519836,
                    10.813053131103516,
                    -1.7911220788955688
                ],
                [
                    -1.8095390796661377,
                    23.174617767333984,
                    0.07731737196445465,
                    -20.270755767822266,
                    -0.9739765524864197,
                    0.008791657164692879
                ]
            ],
            "biases": [
                -8.587362289428711,
                0.22311824560165405
            ]
        }
    ],
    "inputLookup": null,
    "inputLookupLength": 0,
    "outputLookup": null,
    "outputLookupLength": 0,
    "options": {
        "inputSize": 0,
        "outputSize": 0,
        "binaryThresh": 0.5,
        "activation": "sigmoid",
        "hiddenLayers": [
            6
        ],
        "iterations": 2000,
        "learningRate": 0.2
    },
    "trainOpts": {
        "activation": "sigmoid",
        "iterations": 2000,
        "errorThresh": 0.005,
        "log": false,
        "logPeriod": 10,
        "leakyReluAlpha": 0.01,
        "learningRate": 0.2,
        "momentum": 0.1,
        "callbackPeriod": 10,
        "timeout": "Infinity",
        "beta1": 0.9,
        "beta2": 0.999,
        "epsilon": 1e-8
    }
}