{
    "type": "NeuralNetwork",
    "sizes": [
        11,
        6,
        2
    ],
    "layers": [
        {
            "weights": [],
            "biases": []
        },
        {
            "weights": [
                [
                    12.640947341918945,
                    10.612098693847656,
                    -3.2098350524902344,
                    7.779151916503906,
                    4.56444787979126,
                    -5.381171703338623,
                    -3.6240317821502686,
                    -1.1839960813522339,
                    -3.8066556453704834,
                    0.47588032484054565,
                    -19.242176055908203
                ],
                [
                    3.209676504135132,
                    -12.14389419555664,
                    28.452938079833984,
                    -9.299646377563477,
                    0.739712119102478,
                    0.7746890783309937,
                    13.995803833007812,
                    -4.2469048500061035,
                    -13.9944429397583,
                    -10.649535179138184,
                    1.7252049446105957
                ],
                [
                    7.508982181549072,
                    5.664864540100098,
                    1.509204387664795,
                    -9.656294822692871,
                    -11.40654182434082,
                    -7.361647605895996,
                    3.1659154891967773,
                    -0.19982460141181946,
                    21.101228713989258,
                    -10.104305267333984,
                    12.027776718139648
                ],
                [
                    20.121850967407227,
                    -11.12658405303955,
                    -30.916353225708008,
                    13.946364402770996,
                    0.42753666639328003,
                    9.050042152404785,
                    1.9595494270324707,
                    -12.85411548614502,
                    2.039900779724121,
                    17.56455421447754,
                    12.826086044311523
                ],
                [
                    -3.8523247241973877,
                    -1.2776784896850586,
                    -2.484288454055786,
                    0.5553973913192749,
                    -11.083308219909668,
                    -12.297037124633789,
                    3.491379737854004,
                    8.311114311218262,
                    9.943090438842773,
                    13.104207992553711,
                    -9.914695739746094
                ],
                [
                    0.49663785099983215,
                    0.24171197414398193,
                    3.3079261779785156,
                    -2.1466777324676514,
                    -2.5145998001098633,
                    -21.141090393066406,
                    3.7426271438598633,
                    -0.10201509296894073,
                    2.78908634185791,
                    2.5433483123779297,
                    3.373551845550537
                ]
            ],
            "biases": [
                -2.3979954719543457,
                -14.347620964050293,
                -13.130585670471191,
                -4.146607398986816,
                16.408233642578125,
                8.870190620422363
            ]
        },
        {
            "weights": [
                [
                    -0.30689793825149536,
                    14.638864517211914,
                    -3.7741310596466064,
                    -2.9611122608184814,
                    9.671813011169434,
                    0.30202817916870117
                ],
                [
                    -15.02245044708252,
                    0.3062260150909424,
                    0.42563101649284363,
                    0.69745272397995,
                    0.7956892848014832,
                    3.449826955795288
                ]
            ],
            "biases": [
                -5.138542175292969,
                -2.7486627101898193
            ]
        }
    ],
    "inputLookup": null,
    "inputLookupLength": 0,
    "outputLookup": null,
    "outputLookupLength": 0,
    "options": {
        "inputSize": 0,
        "outputSize": 0,
        "binaryThresh": 0.5,
        "activation": "sigmoid",
        "hiddenLayers": [
            6
        ],
        "iterations": 2000,
        "learningRate": 0.2
    },
    "trainOpts": {
        "activation": "sigmoid",
        "iterations": 2000,
        "errorThresh": 0.005,
        "log": false,
        "logPeriod": 10,
        "leakyReluAlpha": 0.01,
        "learningRate": 0.2,
        "momentum": 0.1,
        "callbackPeriod": 10,
        "timeout": "Infinity",
        "beta1": 0.9,
        "beta2": 0.999,
        "epsilon": 1e-8
    }
}