{
    "type": "NeuralNetwork",
    "sizes": [
        11,
        6,
        2
    ],
    "layers": [
        {
            "weights": [],
            "biases": []
        },
        {
            "weights": [
                [
                    12.793609619140625,
                    11.384674072265625,
                    -3.1324896812438965,
                    8.082891464233398,
                    4.951716899871826,
                    -5.115146636962891,
                    -2.879026174545288,
                    -1.5107343196868896,
                    -4.451892852783203,
                    0.7391696572303772,
                    -19.217548370361328
                ],
                [
                    7.213881969451904,
                    9.161248207092285,
                    1.8205797672271729,
                    -10.999227523803711,
                    -13.094138145446777,
                    -9.227916717529297,
                    3.9830756187438965,
                    -0.4879167973995209,
                    22.250896453857422,
                    -10.44793701171875,
                    13.93269157409668
                ],
                [
                    -5.1468658447265625,
                    -1.3954914808273315,
                    -2.9165797233581543,
                    2.107654333114624,
                    -7.193737506866455,
                    -3.031383752822876,
                    1.3929901123046875,
                    5.647475719451904,
                    11.912606239318848,
                    15.663564682006836,
                    -10.965420722961426
                ],
                [
                    0.6839920282363892,
                    -0.10037285089492798,
                    2.5055253505706787,
                    -2.4783570766448975,
                    -2.2652697563171387,
                    -20.466018676757812,
                    4.456180572509766,
                    -0.27339059114456177,
                    1.4727293252944946,
                    2.713829278945923,
                    3.7398767471313477
                ],
                [
                    -20.76366424560547,
                    12.099319458007812,
                    36.85647964477539,
                    -13.625945091247559,
                    -3.7534711360931396,
                    -8.195795059204102,
                    0.7895415425300598,
                    11.107706069946289,
                    -4.287868976593018,
                    -18.001306533813477,
                    -13.382689476013184
                ],
                [
                    9.617713928222656,
                    -8.087397575378418,
                    22.021514892578125,
                    -8.067044258117676,
                    -16.36098289489746,
                    1.6192935705184937,
                    2.027736186981201,
                    -3.7205684185028076,
                    -3.947878122329712,
                    -11.030267715454102,
                    5.538356304168701
                ]
            ],
            "biases": [
                -3.7624144554138184,
                -14.706010818481445,
                6.10885763168335,
                8.962535858154297,
                3.665714979171753,
                -1.976657509803772
            ]
        },
        {
            "weights": [
                [
                    -0.6717832684516907,
                    -3.8209288120269775,
                    5.737414360046387,
                    0.1074906587600708,
                    2.6877102851867676,
                    7.187582492828369
                ],
                [
                    -17.435461044311523,
                    0.6083337664604187,
                    -0.13220719993114471,
                    3.3277597427368164,
                    -0.7043973803520203,
                    -0.6642107367515564
                ]
            ],
            "biases": [
                -4.075181484222412,
                -0.8873090744018555
            ]
        }
    ],
    "inputLookup": null,
    "inputLookupLength": 0,
    "outputLookup": null,
    "outputLookupLength": 0,
    "options": {
        "inputSize": 0,
        "outputSize": 0,
        "binaryThresh": 0.5,
        "activation": "sigmoid",
        "hiddenLayers": [
            6
        ],
        "iterations": 2000,
        "learningRate": 0.2
    },
    "trainOpts": {
        "activation": "sigmoid",
        "iterations": 2000,
        "errorThresh": 0.005,
        "log": false,
        "logPeriod": 10,
        "leakyReluAlpha": 0.01,
        "learningRate": 0.2,
        "momentum": 0.1,
        "callbackPeriod": 10,
        "timeout": "Infinity",
        "beta1": 0.9,
        "beta2": 0.999,
        "epsilon": 1e-8
    }
}