{
    "type": "ONN",
    "sizes": [
        11,
        6,
        2
    ],
    "layers": [
        {
            "weights": [],
            "biases": []
        },
        {
            "weights": [
                [
                    -12.894457817077637,
                    -10.530245780944824,
                    3.1428439617156982,
                    -6.529754161834717,
                    -5.711050033569336,
                    4.865950107574463,
                    3.6094281673431396,
                    0.16920386254787445,
                    1.7140241861343384,
                    -1.2285605669021606,
                    21.753236770629883
                ],
                [
                    1.4829552173614502,
                    -12.81708812713623,
                    23.30025291442871,
                    -10.93055248260498,
                    1.3066399097442627,
                    -4.176456451416016,
                    19.52212905883789,
                    -5.727392196655273,
                    -16.583271026611328,
                    -10.49897575378418,
                    0.5073150992393494
                ],
                [
                    -16.05412483215332,
                    14.255703926086426,
                    27.03995704650879,
                    -10.406220436096191,
                    10.236974716186523,
                    -23.862646102905273,
                    -2.842499017715454,
                    20.801244735717773,
                    -0.7912046313285828,
                    -10.83707046508789,
                    -12.944445610046387
                ],
                [
                    1.2532849311828613,
                    -0.5629223585128784,
                    1.8389562368392944,
                    -1.6717959642410278,
                    -1.0444397926330566,
                    -20.074832916259766,
                    4.51628303527832,
                    -0.05311811715364456,
                    2.7894909381866455,
                    2.8133389949798584,
                    2.8282079696655273
                ],
                [
                    -11.79909896850586,
                    -0.34219101071357727,
                    0.23347210884094238,
                    -4.311813831329346,
                    -12.552770614624023,
                    -6.124232769012451,
                    13.151759147644043,
                    10.70385456085205,
                    8.52912425994873,
                    18.54085922241211,
                    -9.483565330505371
                ],
                [
                    -1.2191591262817383,
                    15.41667652130127,
                    2.587195634841919,
                    -10.48115348815918,
                    -15.114919662475586,
                    -10.875468254089355,
                    16.86590576171875,
                    0.6263779401779175,
                    16.71711540222168,
                    -4.817166328430176,
                    10.215582847595215
                ]
            ],
            "biases": [
                3.189229965209961,
                -8.140593528747559,
                -1.1512455940246582,
                6.845076084136963,
                4.158905029296875,
                -19.353225708007812
            ]
        },
        {
            "weights": [
                [
                    0.5875195264816284,
                    14.419252395629883,
                    2.1549932956695557,
                    -0.460822194814682,
                    2.3838531970977783,
                    -3.952655792236328
                ],
                [
                    13.720309257507324,
                    -0.020992713049054146,
                    -0.5954358577728271,
                    3.706449270248413,
                    -0.19052918255329132,
                    0.7156074047088623
                ]
            ],
            "biases": [
                -0.729401707649231,
                -14.803309440612793
            ]
        }
    ],
    "inputLookup": null,
    "inputLookupLength": 0,
    "outputLookup": null,
    "outputLookupLength": 0,
    "options": {
        "inputSize": 0,
        "outputSize": 0,
        "binaryThresh": 0.5,
        "activation": "sigmoid",
        "hiddenLayers": [
            6
        ],
        "iterations": 2000,
        "learningRate": 0.2
    },
    "trainOpts": {
        "activation": "sigmoid",
        "iterations": 2000,
        "errorThresh": 0.005,
        "log": false,
        "logPeriod": 10,
        "leakyReluAlpha": 0.01,
        "learningRate": 0.2,
        "momentum": 0.1,
        "callbackPeriod": 10,
        "timeout": "Infinity",
        "beta1": 0.9,
        "beta2": 0.999,
        "epsilon": 1e-8
    }
}